#include "layers.h"

float ip_weight2[10*500] = {0.050003, -0.084826, 0.048367, 0.023527, 0.068825, -0.047166, 0.028993, 0.044361, 0.013533, 0.053355, 0.00695, 0.020542, 0.03396, -0.081201, 0.093633, -0.01118, -0.072817, -0.02846, 0.02886, 0.012665, -0.040615, 0.050817, 0.045383, -0.064132, 0.054318, -0.079446, -0.027079, 0.002971, 0.022375, -0.094465, -0.096531, 0.027821, -0.071011, -0.027525, 0.054849, 0.083384, -0.071279, -0.072807, 0.06598, -0.024832, 0.081501, -0.069359, 0.037326, -0.025902, -0.078099, -0.034401, -0.07496, -0.134546, -0.008399, 0.11108, -0.06003, 0.138336, -0.121037, 0.103773, 0.023652, 0.019467, 0.027467, 0.040277, -0.107136, -0.007189, -0.007258, 0.088545, 0.052354, -0.051785, 0.006002, -0.021438, 0.008712, -0.031801, 0.147875, 0.020315, -0.077515, -0.013313, 0.118048, 0.036, -0.143634, 0.05309, 0.067964, -0.047587, 0.034945, -0.024037, -0.083646, -0.010633, -0.010375, -0.008643, -0.026182, -0.077877, -0.062031, 0.008558, 0.067586, -0.012816, 0.010293, -0.031219, -0.045129, 0.125061, -0.030216, 0.110346, -0.055746, -0.104211, -0.009753, -0.014829, 0.105902, -0.042701, 0.094844, -0.093119, -0.075515, 0.049558, 0.099828, -0.070778, 0.06289, -0.085215, 0.074542, 0.022236, -0.070889, -0.050362, -0.012244, 0.036993, -0.061292, 0.0269, -0.07478, 0.113125, -0.005922, 0.046716, -0.026634, 0.046218, -0.089023, 0.02778, 0.051432, 0.03824, -0.021973, 0.029024, -0.037617, 0.031126, 0.043505, 0.04954, -0.089145, -0.092301, 0.006648, 0.018726, -0.008836, -0.049552, 0.028653, -0.005381, -0.042096, -0.071341, -0.036695, 0.026085, 0.079911, -0.096325, -0.049092, -0.028243, -0.031376, 0.105757, -0.068672, -0.036378, -0.04443, -0.088884, -0.079383, -0.059955, -0.034007, 0.004645, 0.008661, -0.067083, 0.011578, -0.0564, 0.007541, -0.043372, 0.006327, -0.098677, 0.007464, 0.087052, -0.088878, -0.059129, -0.098117, -0.028749, -0.098383, 0.0699, -0.073203, 0.000334, -0.004887, -0.007524, -0.006793, 0.090398, 0.02268, 0.010997, -0.116068, -0.079009, -0.014432, -0.078485, -0.026163, -0.029233, 0.05687, 0.116655, -0.021554, 0.000407, -0.059965, 0.009696, -0.030725, 0.0455, 0.02497, -0.06127, -0.110018, 0.083402, 0.027971, -0.068341, -0.035341, 0.091783, -0.048896, -0.058627, 0.059192, 0.013735, -0.09156, -0.075038, -0.005714, 0.005058, -0.050806, -0.070809, 0.064756, 0.096053, 0.015858, -0.02916, -0.008345, -0.078137, -0.028749, 0.003544, -0.014085, -0.011655, 0.098963, 0.05633, 0.061826, -0.123994, 0.04032, 0.101377, 0.051248, -0.004039, 0.000744, -0.002114, 0.050935, 0.04295, -0.123721, 0.166037, -0.083923, 0.048065, 0.022104, -0.028333, -0.026542, -0.089069, 0.011535, 0.081781, -0.050858, -0.02243, 0.070896, 0.04785, -0.021433, -0.020883, 0.049053, -0.046386, -0.051602, -0.053265, 0.007947, 0.183584, 0.054236, -0.089438, 0.018405, 0.078045, -0.012546, 0.03248, 0.003483, 0.090053, -0.012536, -0.022096, 0.099289, -0.066938, -0.006874, -0.076024, 0.072352, -0.054419, 0.108319, -0.086277, -0.028095, 0.038619, 0.05514, -0.073265, -0.007007, -0.012799, -0.024189, -0.013193, -0.004139, -0.0342, -0.144769, 0.040429, -0.077583, -0.019041, 0.055574, 0.109719, -0.039551, -0.10696, -0.014392, 0.055969, 0.11162, -0.070276, -0.026824, -0.069574, -0.077729, -0.033522, -0.011601, 0.01762, 0.057311, -0.030951, -0.016593, -0.093273, -0.064474, 0.076956, -0.039191, -0.047, 0.06033, 0.090767, -0.073599, 0.029938, 0.017824, -0.047862, 0.043671, 0.000431, -0.01986, -0.074681, -0.032186, -0.019133, -0.124298, 0.077269, 0.087095, -0.087213, 0.03293, 0.018844, -0.043662, -0.011925, -0.05152, 0.118901, 0.064779, 0.095888, 0.000348, 0.000888, 0.005775, -0.020039, -0.019569, -0.025127, 0.028856, -0.006254, 0.003718, -0.022261, 0.053351, 0.064654, -0.05532, -0.034649, 0.026406, -0.018702, -0.0184, 0.008728, 0.068476, 0.004466, 0.05582, 0.001351, -0.068081, -0.09968, 0.087257, 0.060138, -0.078986, 0.002349, 0.110633, -0.059049, 0.008217, 0.00054, 0.001866, -0.03389, -0.028886, -0.009918, -0.036246, -0.055563, 0.020676, 0.059327, -0.059415, -0.082375, -0.065197, 0.033558, -0.05946, 0.018812, -0.007257, 0.04736, 0.032699, -0.079286, 0.140327, -0.085029, 0.067829, -0.000569, 0.101525, -0.077515, 0.020348, -0.119378, -0.128829, -0.035127, -0.044839, 0.133162, 0.169844, 0.037517, 0.054591, 0.051131, -0.110663, -0.079565, 0.009319, 0.042675, 0.12883, 0.069467, 0.106519, 0.090512, 0.045054, -0.034979, 0.02076, 0.055471, 0.083229, 0.011808, -0.024593, 0.011698, -0.012811, -0.013954, 0.079614, -0.091595, 0.015548, -0.030102, 0.000913, -0.041529, -0.10007, 0.011527, 0.019285, -0.094376, -0.03572, 0.048691, -0.005367, 0.027862, 0.059433, -0.089088, -0.017073, 0.042283, -0.065186, 0.0569, 0.041299, 0.041077, -0.066027, 0.06255, -0.086505, 0.024736, 0.039511, 0.082312, -0.038079, 0.070867, 0.000861, -0.03426, -0.073237, 0.049721, -0.081396, 0.037173, 0.039283, -0.053971, -0.028871, -0.111716, 0.059567, -0.033643, 0.059706, 0.05086, 0.067843, -0.018424, 0.123839, 0.018783, -0.029861, 0.029711, 0.036809, -0.009963, 0.055062, -0.080319, 0.07264, 0.091434, -0.139429, 0.084197, -0.118708, -0.034906, -0.038002, 0.072806, -0.070069, 0.04693, 0.063871, 0.021711, 0.007802, -0.054738, -0.032306, -0.056686, 0.061221, -0.0387, -0.015537, 0.006298, -0.102096, -0.051225, 0.060087, -0.033492, -0.022824, -0.110082, 0.077877, 0.019423, 0.117412, 0.043072, 0.025239, 0.047456, -0.050205, -0.043529, 0.081173, -0.042043, 0.094298, -0.070009, -0.139653, 0.04746, -0.026112, 0.040849, -0.023971, 0.058079, -0.058339, -0.08919, 0.081341, -0.026817, -0.038149, 0.141467, -0.034645, 0.034132, 0.008661, -0.092412, -0.040821, 0.006223, -0.075588, 0.115416, 0.073683, 0.001622, 0.024145, 0.096084, -0.059536, 0.066202, 0.010488, 0.072358, -0.013101, -0.007224, -0.032427, -0.025155, 0.092505, -0.097218, 0.010676, 0.002936, 0.123549, -0.050432, -0.068664, -0.111165, -0.085252, 0.080317, -0.035935, 0.046415, -0.063168, 0.105625, 0.022397, -0.084755, 0.013655, 0.071897, 0.041737, -0.005944, 0.070334, -0.054394, -0.138783, 0.080213, -0.093025, -0.030137, 0.027656, -0.026644, 0.129843, -0.026339, 0.022716, -0.032122, 0.006006, -0.041097, -0.099609, -0.006529, -0.043397, 0.04076, 0.043712, 0.131406, 0.00483, 0.041981, 0.075767, -0.01464, 0.033234, 0.019305, 0.066106, 0.012017, 0.102189, 0.049504, -0.064292, 0.108469, 0.065964, -0.05114, -0.031624, 0.054761, -0.097409, 0.060652, -0.012997, -0.074806, -0.128847, 0.047598, 0.104492, -0.006053, 0.045664, 0.098997, -0.072932, 0.048611, 0.187481, 0.045943, -0.056826, -0.015138, 0.110689, 0.024767, -0.073826, -0.074435, 0.079127, 0.078252, -0.010971, -0.038067, -0.084626, 0.032386, -0.022395, -0.056773, -0.041712, 0.066674, -0.046807, 0.100615, 0.056971, 0.009768, 0.060894, -0.007879, -0.051659, 0.016592, -0.131422, -0.015645, 0.082745, 0.032273, 0.059179, 0.036763, -0.035728, 0.002637, -0.011511, 0.053819, -0.064617, 0.030391, 0.056376, -0.054067, 0.013371, -0.024761, 0.023306, 0.035101, 0.099327, -0.005619, -0.08808, -0.082379, -0.073798, 0.03664, 0.017053, -0.055595, -0.074588, -0.014735, 0.038104, -0.085299, 0.031616, -0.030207, 0.006777, 0.052468, 0.17724, 0.019246, -0.066135, 0.068088, 0.101003, 0.097604, 0.004718, 0.060815, -0.033132, 0.10145, -0.088567, 0.105851, -0.02862, -0.013142, 0.041971, 0.035046, 0.015281, 0.02486, -0.002251, -0.068622, 0.021194, -0.008539, -0.038742, -0.075957, 0.046478, 0.058177, -0.074666, 0.104359, 0.178469, 0.021474, 0.0117, -0.057323, 0.010466, 0.099925, 0.076198, -0.063207, -0.026489, 0.10175, -0.053804, -0.014038, -0.055159, 0.037162, -0.043827, 0.037656, 0.059097, 0.090752, -0.028606, 0.080365, 0.004569, -0.120426, -0.053948, -0.05027, -0.006046, 0.014827, -0.054455, -0.029186, -0.043665, -0.076234, -0.046362, 0.172894, -0.079466, -0.044396, -0.061778, -0.013814, 0.178912, 0.037855, 0.024393, -0.039479, -0.101467, 0.021597, 0.058873, -0.119211, 0.082021, -0.12947, 0.011175, -0.05989, 0.018415, 0.096635, 0.006163, 0.084993, 0.002202, 0.01124, 0.039071, 0.10876, 0.002052, -0.090038, -0.022466, -0.037827, 0.008852, 0.089597, 0.087841, -0.09252, 0.034829, 0.068994, -0.034294, -0.040232, 0.025271, -0.015226, 0.102417, -0.024125, -0.051986, 0.01847, -0.036252, -0.022826, 0.005787, -0.050479, 0.057916, 0.06468, -0.059807, -0.024703, 0.0376, 0.033176, -0.011633, 0.042483, 0.035338, -0.060993, -0.092019, 0.037314, 0.080219, -0.129744, -0.044705, -0.073537, -0.08925, -0.050403, -0.030362, 0.078062, -0.058425, 0.121938, 0.019751, 0.053868, -0.038841, 0.012525, -0.101192, -0.043692, -0.018562, -0.03105, 0.01287, 0.038202, 0.062319, 0.05528, 0.040406, -0.033826, 0.088252, -0.04049, -0.054829, -0.00678, -0.014553, -0.092422, 0.039879, 0.097275, 0.109185, -0.055823, -0.033627, -0.046145, -0.015505, 0.007056, -0.062276, 0.031954, -0.003426, 0.022775, 0.097677, 0.041688, 0.082615, -0.092002, -0.128969, 0.063403, 0.079627, 0.100912, 0.169694, -0.011944, 0.01915, -0.025254, 0.137738, 0.130721, 0.082749, -0.027365, 0.031657, 0.045774, 0.025326, 0.057438, -0.034817, 0.044312, 0.03258, -0.05564, -0.026953, -0.053221, -0.029429, -0.021569, 0.043272, 0.055864, -0.045897, -0.019804, -0.035839, -0.055358, -0.049722, 0.14728, 0.018931, -0.029053, 0.041941, 0.087105, 0.047371, -0.010301, 0.055745, 0.06832, -0.004069, 0.129501, 0.029283, 0.002077, 0.016086, 0.021669, 0.020293, -0.031829, 0.070678, 0.003838, 0.067588, -0.057213, -0.014781, 0.01804, -0.014238, -0.154459, -0.000262, -0.068204, 0.032236, -0.057127, 0.057567, -0.007793, -0.053015, -0.112064, 6.8e-05, -0.024479, -0.099561, 0.061536, -0.041078, -0.056186, 0.032998, -0.047707, -0.032119, 0.006959, 0.076661, -0.007212, -0.008309, -0.074663, 0.003667, -0.095679, -0.045666, 0.063454, -0.015186, -0.002769, -0.019038, -0.056266, -0.001327, 0.06523, -0.037941, 0.033442, -0.068533, 0.0761, 0.119659, -0.003841, 0.021391, 0.039352, -0.031267, 0.00607, 0.037668, -0.027118, -0.065923, -0.07371, -0.040453, -0.113204, 0.045922, 0.057007, 0.00761, -0.078871, -0.060414, 0.043233, -0.002588, 0.034229, -0.037384, 0.026236, -0.014516, -0.048947, -0.053029, -0.070382, -0.081572, -0.044813, 0.089055, 0.053476, 0.047643, -0.06027, 0.093662, 0.006379, -0.013377, 0.0971, -0.015996, -0.060455, -0.068145, -0.018645, -0.075652, 0.050145, -0.034335, 0.026616, -0.016168, -0.074696, 0.082464, -0.025407, -0.044862, 0.095103, 0.036838, 0.062174, 0.129355, 0.014238, -0.064107, 0.023507, 0.088664, 0.057276, 0.01664, -0.03209, 0.030163, 0.017847, -0.08608, -0.04535, 0.068307, 0.023093, 0.007641, -0.011547, 0.019578, 0.008899, 0.055635, -0.00188, -0.103931, 0.013471, -0.078381, -0.054029, 0.030368, -0.030704, -0.112725, -0.022545, -0.076328, 0.084005, 0.015722, 0.078257, 0.115253, 0.062929, -0.007708, -0.140053, 0.026558, 0.176728, 0.005006, -0.105192, 0.162928, -0.109805, -0.017612, -0.004666, 0.069735, -0.035611, 0.135444, -0.028941, 0.089585, 0.02986, -0.086615, -0.007802, 0.171109, -0.054233, -0.055163, 0.100887, 0.020335, 0.070775, 0.128798, 0.187234, -0.042932, -0.058092, -0.005979, -0.023369, -0.112759, -0.053342, 0.102549, -0.047437, 0.104654, 0.011922, -0.110104, -0.084013, -0.130262, -0.056862, -0.109905, -0.036561, 0.016785, 0.06423, 0.029782, 0.126773, 0.05477, -0.023671, -0.089004, -0.005395, -0.020355, -0.007039, 0.026509, 0.064086, 0.031217, 0.093191, 0.023187, -0.000144, 0.1133, 0.018733, -0.050911, -0.035085, -0.139773, -0.042544, -0.043271, -0.12243, 0.078026, 0.077438, 0.004112, 0.015214, 0.065966, 0.010289, -0.159628, -0.114702, 0.159416, 0.06933, -0.013616, 0.025983, -0.061854, 0.027091, 0.106342, 0.018671, -0.045451, -0.047531, -0.052964, 0.003425, 0.076277, -0.017694, 0.001899, -0.042746, 0.129179, 0.028095, -0.126178, -0.136589, -0.080116, 0.010052, 0.056766, -0.023465, -0.226111, -0.038302, -0.019733, 0.085327, -0.084791, 0.025761, -0.001169, -0.085532, -0.011288, 0.004828, -0.121938, 0.069618, -0.07445, -0.055394, -0.002074, 0.093688, -0.05271, 0.10227, 0.100366, -0.026547, -0.005854, 0.055114, -0.047697, -5.9e-05, -0.112167, -0.04588, 0.063989, 0.121047, -0.061813, 0.108485, -0.016602, 0.0003, 0.033644, 0.020089, 0.004965, 0.011085, 0.049365, -0.14002, -0.002235, -0.00829, -0.047963, 0.053227, 0.017365, 0.081237, -0.044145, 0.056082, 0.072644, 0.031498, 0.04452, -0.051617, -0.133611, 0.036468, 0.014132, -0.026733, -0.069294, -0.078509, 0.117312, -0.00415, 0.035668, -0.041196, -0.00028, -0.040609, -0.024147, -0.010573, -0.093929, -0.058812, 0.013567, 0.130801, 0.181388, 0.10049, 0.043328, -0.132331, 0.133994, -0.095562, -0.058207, 0.037049, -0.060187, -0.092697, 0.007117, -0.001705, -0.008175, -0.058195, -0.051716, 0.076293, -0.055884, -0.066535, 0.08359, 0.079823, -0.008078, -0.069421, -0.124005, 0.143053, 0.011902, 0.005562, -0.095831, -0.082468, -0.068103, -0.158817, -0.00018, -0.108538, 0.044596, 0.038856, 0.044656, 0.053435, -0.038502, -0.102696, 0.014476, -0.093445, 0.036462, 0.206954, -0.11287, -0.075744, 0.005753, -0.082269, 0.103031, -0.025236, 0.011431, 0.056875, 0.089104, 0.128607, -0.117449, 0.155572, -0.001526, 0.030485, -0.011635, 0.088741, 0.037689, 0.047158, 0.109124, -0.06524, -0.042801, -0.041342, 0.098185, 0.208803, -0.13476, 0.016956, -0.090609, 0.089773, 0.059008, -0.176824, 0.081967, -0.110157, 0.063594, 0.059759, 0.110001, 0.024271, -0.065471, 0.04058, -0.013737, -0.062469, -0.033804, -0.035412, 0.063196, 0.210705, 0.084145, -0.05699, 0.073874, -0.065274, -0.018588, 0.116146, -0.085264, 0.03525, -0.033946, -0.163611, -0.075898, -0.016618, -0.11226, 0.105265, -0.123117, 0.038929, 0.066883, 0.01547, -0.040921, 0.074193, -0.017463, 0.115137, -0.062325, 0.045457, -0.006396, -0.066743, 0.041657, 0.083293, -0.177145, 0.028198, -0.075822, 0.01229, 0.019662, 0.06713, 0.130512, -0.105662, -0.059388, 0.064529, -0.029438, -0.086578, 0.023521, -0.006999, 0.166576, 0.072101, 0.01884, -0.033292, 0.036929, 0.028839, 0.008812, 0.061369, 0.154006, -0.007501, 0.077378, -0.021305, 0.096313, 0.008222, 0.007266, 0.000619, 0.051114, 0.08608, -0.221829, -0.067184, 0.045069, 0.088764, 0.027003, 0.053427, -0.013793, -0.008889, 0.003853, -0.109508, 0.035415, 0.098481, 0.060791, -0.001423, 0.059774, -0.053534, -0.001151, 0.020238, -0.036948, -0.006014, -0.011102, -0.005683, -0.045037, -0.004501, -0.090475, -0.024176, -0.155748, 0.046261, -0.038287, 0.121514, 0.026719, 0.078051, -0.006764, -0.010179, -0.030724, 0.038597, 0.030017, 0.011073, -0.009288, -0.045867, -0.009899, 0.084514, 0.01384, 0.084748, -0.076857, 0.021291, 0.002961, -0.095514, -0.053603, 0.051903, -0.147371, 0.0602, 0.023657, 0.03324, 0.114501, -0.021769, -0.095404, -0.022962, -0.094744, 0.127904, 0.004736, -0.142964, 0.000862, 0.047802, -0.040201, -0.106814, -0.067184, -0.085567, -0.023762, 0.009358, 0.043426, 0.030917, -0.090204, -0.016093, 0.065499, 0.055292, 0.048005, 0.020334, 0.140969, 0.066411, -0.146748, 0.062066, 0.027242, 0.083867, 0.032438, -0.055581, 0.055826, 0.050577, -0.000198, 0.10059, -0.050789, 0.031845, 0.002202, 0.091699, -0.065318, 0.143457, -0.028196, 0.169512, -0.084937, 0.005925, -0.054265, -0.002641, -0.012403, 0.064565, -0.02553, 0.203986, 0.138782, 0.047166, 0.04181, -0.07658, 0.046423, 0.018229, 0.027892, -0.008481, 0.013149, -0.006401, 0.062489, -0.067146, -0.007679, 0.04718, -0.057923, 0.071461, 0.011694, 0.044104, 0.076394, -0.028828, -0.017534, -0.122235, -0.049392, 0.047816, -0.102077, 0.017197, -0.048414, -0.064298, -0.004141, 0.057103, -0.07994, -0.146546, 0.132312, 0.050324, -0.016354, -0.060653, -0.027757, 0.056901, 0.021882, 0.008251, 0.078408, -0.046349, -0.032598, -0.073706, -0.037939, -0.046027, 0.011645, 0.052721, -0.044707, 0.034156, -0.116025, -0.17231, 0.059039, -0.046614, 0.06938, -0.00047, -0.038356, -0.112217, 0.033082, -0.050257, 0.002316, -0.096034, -0.094671, -0.043635, -0.051411, -0.056573, 0.079329, 0.040577, -0.043761, 0.086676, -0.02482, -0.019527, -0.05262, -0.011863, 0.031262, -0.040878, -0.06178, -0.02969, -0.064119, -0.040652, 0.149259, -0.008699, 0.037928, 0.106485, -0.002098, -0.054398, 0.08454, -0.051477, 0.058873, 0.096976, 0.160739, 0.080918, 0.142566, 0.152901, 0.046222, 0.214637, -0.024578, -0.083155, -0.029686, -0.062567, 0.081666, 0.026515, 0.072785, -0.099125, -0.056403, -0.047445, 0.071844, -0.170643, 0.082415, 0.02277, 0.056583, -0.145786, -0.022635, -0.008818, -0.076377, 0.009353, 0.034828, -0.107804, -0.058939, 0.022269, 0.109095, -0.060329, -0.03522, 0.06892, 0.07744, 0.074215, 0.019331, -0.110651, -0.01362, -0.007995, 0.152321, -0.002699, 0.034328, -0.018784, -0.045929, 0.051035, 0.050238, 0.064558, 0.110743, 0.037344, -0.002547, 0.032899, -0.025718, 0.036231, -0.068451, -0.03494, 0.006222, 0.056442, -0.089576, 0.105434, -0.11188, -0.03062, 0.06021, -0.083623, -0.033543, 0.09541, 0.142278, -0.04614, 0.087218, -0.02049, -0.069022, -0.008859, 0.029119, 0.066649, -0.087572, 0.073391, 0.034882, -0.013505, -0.092084, -0.094701, 0.105352, -0.069746, -0.037628, -0.002566, 0.054305, 0.003167, -0.015477, -0.111912, -0.019729, -0.042227, 0.005641, -0.096319, 0.039929, 0.071093, -0.058773, 0.002954, 0.050813, 0.185113, 0.022555, 0.036662, -0.001531, -0.024367, -0.028374, 0.094715, -0.011447, 0.007035, 0.009029, -0.029865, -0.002418, 0.188154, -0.07044, 0.061495, 0.078134, -0.082946, -0.117869, -0.007778, 0.132194, 0.022961, 0.008269, -0.09004, -0.016169, -0.053917, -0.015766, -0.089976, -0.01815, -0.008773, -0.133281, -0.019837, 0.040045, -0.033354, -0.017249, -0.077573, -0.094675, -0.006904, 0.019096, 0.024474, -0.051956, 0.065233, -0.00794, -0.067613, -0.006568, 0.023261, 0.029603, 0.041325, -0.093915, 0.015419, 0.019042, -0.065895, -0.105065, -0.031885, -0.082626, -0.033649, -0.079976, 0.024049, 0.015459, -0.058608, 0.040843, 0.041811, 0.084913, 0.060804, -0.073807, -0.041392, 0.037345, -0.003081, 0.064644, -0.100596, -0.113114, -0.082789, -0.053722, -0.056383, 0.024868, -0.05943, -0.012253, -0.083615, -0.059468, -0.167911, 0.069719, 0.075993, -0.060701, -0.056448, 0.027044, 0.086377, -0.033015, 0.048629, -0.128079, -0.023584, 0.166194, 0.184311, -0.074685, -0.023334, 0.055238, 0.101199, -0.067688, -0.103324, -0.027057, -0.070231, -0.055466, 0.027124, -0.082359, -0.033457, -0.061987, -0.012596, 0.066804, -0.000554, 0.141593, -0.015471, 0.075209, 0.031892, 0.0146, 0.065196, -0.04978, 0.122899, 0.04188, -0.051558, -0.088537, -0.023005, 0.004403, -0.081028, -0.062863, -0.000419, 0.033832, -0.069629, -0.068062, -0.043778, 0.083439, 0.210094, 0.056479, -0.087197, -0.076293, 0.063141, -0.001582, 0.050959, -0.090068, 0.176481, -0.041124, -0.061291, -0.060362, -0.118319, -0.146241, 0.021629, 0.106971, -0.102709, 0.083458, -0.136525, -0.041167, -0.020794, 0.020624, 0.093285, -0.013734, -0.14089, 0.110232, -0.090813, 0.075665, 0.024771, 0.048124, 0.061274, 0.040438, -0.132656, 0.072577, -0.049406, 0.075266, -0.050581, -0.002952, 0.003911, -0.068321, -0.053597, 0.09114, 0.053163, -0.016521, 0.073489, -0.100982, 0.012557, -0.05824, -0.028669, -0.050807, 0.031397, -0.092993, -0.096428, -0.092743, -0.096965, -0.017934, 0.140404, 0.140745, 0.037332, -0.064771, 0.076236, 0.021835, -0.076874, 0.011621, -0.077597, -0.032607, -0.064491, -0.073675, -0.117991, -0.021074, 0.047854, 0.06101, 0.084987, 0.011436, -0.078913, 0.052229, -0.049129, -0.096751, -0.096733, -0.106081, -0.088952, 0.079518, -0.016233, -0.011238, -0.001704, 0.048331, 0.023022, -0.012992, 0.069406, 0.030966, -0.073418, -0.027354, 0.002163, -0.090161, 0.086386, -0.009042, -0.012156, -0.073057, -0.066874, -0.001821, -0.071095, -0.095957, 0.078258, -0.021963, 0.009101, 0.078166, -0.069208, -0.051027, -0.015672, -0.022558, 0.046401, 0.144087, 0.103885, -0.018267, -0.043051, -0.077113, -0.064422, -0.014414, 0.059728, -0.077217, -0.050354, 0.069583, -0.078279, -0.100005, -0.080042, -0.024984, 0.072204, 0.017868, -0.05951, 0.007132, 0.033039, -0.116418, -0.011348, 0.083884, 0.08635, 0.070502, 0.020515, -0.032925, 0.052732, -0.127671, 0.154233, -0.005228, 0.005492, 0.027794, 0.088408, -0.090621, 0.223673, -0.080467, 0.040492, 0.003682, 0.021975, -0.084788, 0.120917, 0.061522, 0.022581, 0.086335, -0.046228, -0.058634, 0.011717, -0.024917, -0.139286, -0.024533, 0.037981, -0.001354, -0.070616, 0.024804, -0.065073, -0.061019, -0.09852, 0.020682, 0.01767, 0.015611, -0.059907, -0.066574, -0.010716, 0.076998, 0.020132, -0.075284, -0.035138, 0.031379, -0.081128, -0.012066, -0.024402, 0.038557, 0.064721, -0.051115, -0.008988, -0.024178, 0.034806, -0.071966, -0.050767, -0.018017, 0.126435, 0.038834, -0.101329, 0.199087, -0.012472, 0.106619, -0.09194, 0.021144, -0.083962, -0.024296, -0.116893, -0.076206, 0.027471, 0.034414, -0.002059, 0.017331, 0.033966, -0.020547, -0.082101, -0.021191, 0.153656, -0.06399, 0.023141, 0.009924, -0.078956, -0.040137, -0.086904, -0.011159, -0.095644, 0.065014, -0.092267, 0.039278, -0.055631, 0.027801, 0.215183, 0.007337, 0.041013, -0.149082, -0.075153, 0.171269, 0.018585, -0.096464, -0.067067, 0.080983, -0.033058, -0.095636, 0.00702, 0.060932, -0.05384, 0.00925, -0.094811, -0.115539, 0.01303, 0.011043, 0.09632, 0.105518, 0.106196, -0.11713, -0.045361, 0.058579, -0.112498, 0.027925, -0.084821, -0.118662, 0.005162, -0.000143, 0.04095, -0.019904, -0.00469, -0.163309, 0.02797, 0.008673, 0.049022, -0.03375, 0.039492, -0.023997, -0.060527, -0.062502, 0.018743, -0.033298, 0.101939, -0.005171, 0.078243, -0.06723, -0.051861, -0.072001, -0.055752, -0.028874, -0.17587, -0.036211, 0.138856, 0.015567, 0.065416, -0.106731, 0.002495, 0.062649, 0.056828, 0.035683, -0.061759, -0.116038, -0.002466, 0.015956, 0.06501, 0.08972, 0.13648, 0.128261, 0.02979, 0.079268, 4.5e-05, 0.034128, -0.080446, -0.027811, -0.048833, -0.004453, 0.151823, -0.095808, -0.045705, -0.063547, -0.095609, 0.028089, 0.076818, 0.00665, -0.051735, -0.017403, 0.054179, 0.076577, -0.009222, 0.057665, -0.027107, 0.012599, -0.036065, 0.068763, -0.0018, 0.092357, -0.037105, 0.076962, 0.045839, -0.049985, -0.00011, 0.061693, -0.078689, -0.008819, -0.109999, -0.054334, 0.08625, 0.002459, 0.002737, 0.10876, 0.096531, 0.044919, 0.069225, 0.008494, -0.143332, 0.093698, -0.113614, -0.036633, -0.118268, -0.001498, 0.077223, 0.047834, 0.012156, 0.029779, -0.04526, -0.048599, 0.116714, -0.198062, -0.114354, 0.023764, -0.002371, -0.020392, 0.011136, -0.081691, -0.071739, -0.104175, 0.093483, 0.012281, 0.111237, -0.00272, 0.009825, -0.080438, -0.025389, -0.021465, -0.0885, 0.054325, -0.047948, 0.145355, 0.015557, 0.012211, -0.054433, -0.107131, 0.019776, -0.01933, -0.041396, -0.05478, -0.022984, -0.02838, -0.048989, 0.077656, -0.013585, -0.077987, 0.123177, 0.018663, 0.038772, -0.04529, -0.038823, -0.028404, 0.152904, 0.033465, 0.169703, -0.044073, 0.015715, 0.039645, 0.006242, 0.019419, -0.022952, -0.085764, -0.03344, 0.118266, -0.013291, 0.082802, -0.121791, -0.06934, 0.110451, 0.18604, -0.065366, -0.011528, 0.095274, -0.055441, 4.7e-05, -0.021187, -0.014182, 0.070847, 0.216609, -0.043966, -0.044166, 0.107935, 0.018263, -0.069585, 0.007452, -0.103822, -0.093796, -0.091328, -0.098679, 0.133857, 0.051321, -0.157886, 0.091038, 0.035455, 0.040494, 0.005117, -0.063558, 0.008797, -0.023404, 0.021009, 0.126372, 0.008108, -0.036684, 0.122282, 0.121269, 0.025614, -0.033447, -0.093515, 0.037806, -0.088414, 0.052023, -0.054073, 0.137673, -0.018009, 0.071599, 0.108122, -0.052571, 0.09878, -0.028725, 0.06645, 0.021909, -0.010211, 0.062287, 0.061759, 0.1018, 0.03556, 0.016109, -0.063677, -0.12528, 0.019992, -0.041924, 0.021268, -0.008253, -0.042465, 0.045965, -0.010193, 0.169032, 0.029726, -0.079082, -0.071392, -0.080781, -0.020774, -0.098844, 0.014807, -0.050924, 0.071085, 0.086154, -0.013167, 0.065183, 0.055928, 0.086678, -0.040642, -0.003713, 0.105094, -0.003714, -0.059777, -0.04039, -0.076791, 0.035384, 0.010395, -0.055029, 0.050235, -0.156258, 0.048371, -0.065322, -0.034949, 0.102512, 0.112569, -0.148883, -0.066203, 0.051797, -0.080282, 0.049055, 0.023945, -0.031132, -0.043229, -0.078313, -0.109098, 0.003946, -0.03812, -0.001845, -0.027581, 0.021927, -0.038515, -0.050281, 0.09548, -0.06825, 0.048227, 0.041449, 0.004102, -0.013396, -0.017827, -0.021289, -0.069541, -0.03875, -0.011913, -0.010063, 0.095479, 0.023799, -0.015125, 0.048172, -0.051435, -0.028533, 0.004884, -0.005525, 0.004136, 0.037941, -0.002663, 0.023541, -0.015156, -0.129841, -0.08935, -0.067119, -0.078032, 0.067686, -0.043768, -0.038498, -0.003223, -0.102598, 0.024228, -0.129902, 0.178134, 0.075574, -0.033681, 0.043645, 0.011825, 0.066196, 0.062817, 0.206199, 0.142756, -0.022403, -0.027843, -0.029822, -0.046212, 0.043235, -0.072479, -0.140575, -0.031818, -0.106678, 0.018943, 0.016434, 0.021268, -0.152181, 0.087967, 0.044442, 0.092972, 0.002123, 0.074317, -0.065098, 0.012508, 0.029831, -0.058807, 0.006378, -0.010317, -0.024308, 0.021255, -0.003957, -0.020238, 0.035048, 0.034621, -0.02911, -0.051658, 0.097481, -0.020564, -0.107148, -0.089968, 0.063337, 0.016866, 0.009173, 0.000729, 0.12058, -0.046057, -0.025761, 0.030795, 0.00511, -0.07449, -0.055637, 0.051716, 0.082117, 0.036525, -0.023481, -0.088492, 0.136357, -0.019544, 0.016525, 0.146941, 0.021043, 0.034665, -0.004942, 0.060409, -0.062214, 0.00499, -0.129012, -0.071987, 0.047833, -0.051787, 0.089748, -0.026478, 0.028904, 0.02872, 0.032027, 0.041315, 0.054986, 0.044041, -0.091382, 0.059021, -0.194424, -0.063938, -0.041859, 0.096381, 0.0989, 0.034248, 0.022334, 0.063789, 0.015376, -0.111656, -0.121137, -0.07219, -0.054916, 0.068284, 0.052451, -0.008277, 0.113075, 0.021859, 0.037838, -0.000311, 0.059249, 0.053947, 0.094705, 0.022083, 0.104068, -0.027653, -0.052914, -0.020966, 0.112576, -0.035401, -0.009433, 0.008464, -0.083627, -0.0801, 0.043178, -0.005599, -0.000174, -0.036917, 0.104143, 0.016157, -0.117939, 0.051887, 0.035966, 0.018557, -0.027342, -0.006692, -0.0583, -0.037112, 0.058972, 0.088343, 0.047451, -0.105783, -0.013455, 0.118811, -0.063969, 0.102422, -0.067459, 0.108711, -0.000839, -0.101796, -0.061295, -0.067441, -0.017911, -0.11202, -0.203218, -0.106907, 0.10352, -0.079824, -0.053717, -0.007743, 0.027511, -0.068917, -0.037338, 0.060885, -0.091147, -0.001107, -0.067179, 0.1949, -0.058861, -0.100962, -0.035603, 0.090079, 0.002462, 0.126306, -0.031175, -0.052262, -0.07074, -0.041958, -0.019837, 0.001402, 0.102305, 0.033307, 0.04906, -0.021047, 0.016949, -0.001325, -0.047678, 0.080084, 0.068526, -0.024768, 0.038416, 0.038792, 0.083973, -0.010814, 0.055251, -0.020945, 0.06074, 0.091574, 0.040604, -0.00287, -0.0335, 0.073279, -0.09397, -0.047848, 0.07174, -0.017699, -0.150233, -0.097562, -0.156394, 0.047646, 0.010573, 0.081775, 0.177876, 0.06134, -0.084101, 0.06793, -0.005344, 0.007727, 0.16088, 0.024206, -0.025443, -0.102226, 0.001843, -0.125863, 0.031756, -0.01966, -0.089519, -0.042115, 0.048274, 0.094456, 0.007695, -0.103511, 0.030838, -0.122837, 0.052743, -0.099468, 0.075976, -0.036894, -0.088859, 0.062951, -0.132902, 0.095893, 0.075912, -0.04251, -0.095065, -0.101386, 0.046767, 0.00792, -0.082218, -0.070176, -0.057759, 0.045855, 0.111517, 0.023853, 0.055728, 0.012164, 0.052993, -0.081565, -0.048336, -0.113654, -0.091207, -0.094426, 0.078841, 0.060885, -0.043792, -0.040564, -0.055868, 0.126647, -0.024235, 0.084855, 0.120477, 0.06408, -0.022842, 0.09222, -0.048611, 0.054462, 0.083836, -0.068207, -0.144425, -0.11476, -0.020896, -0.014869, -0.141949, 0.054015, 0.047263, -0.14007, 0.082638, 0.086393, 0.008823, -0.112441, -0.019461, -0.087886, 0.145769, 0.046836, -0.164975, 0.08682, 0.012456, -0.05022, 0.00367, 0.010897, 0.001099, 0.019929, 0.058644, 0.082314, -0.039618, 0.013578, -0.010479, 0.008044, -0.097658, -0.020483, 0.098885, -0.035446, -0.053438, 0.112515, 0.017882, -0.093875, 0.041274, 0.014158, 0.052525, 0.022127, 0.018443, 0.120812, -0.078126, -0.022153, -0.16249, -0.005443, -0.024839, -0.021727, 0.036705, -0.037981, -0.050514, 0.013999, -0.079357, 0.058786, -0.068439, -0.029228, -0.04867, 0.006014, -0.084701, 0.018189, -0.056122, 0.016091, -0.03567, 0.001476, -0.012613, 0.074567, 0.019903, -0.045398, -0.045914, -0.014063, 0.000651, 0.055822, -0.089667, 0.076192, 0.145849, 0.018266, 0.05947, 0.064799, -0.040176, 0.102423, 0.078856, -0.061757, -0.047997, 0.131169, 0.002302, -0.055666, 0.078278, 0.094354, -0.045172, 0.030329, -0.028926, -0.054535, -0.112366, 0.089513, 0.052442, -0.017811, 0.057192, -0.078413, -0.007718, 0.015005, 0.059396, -0.040905, -0.020095, 0.05145, -0.033016, -0.023835, -0.005049, 0.054072, 0.046456, -0.112789, -0.079774, -0.011837, 0.005337, 0.04501, 0.077822, -0.002865, -0.081172, -0.006132, 0.135722, -0.130689, -0.216621, 0.055073, 0.055555, 0.005809, -0.09235, 0.083337, -0.131362, 0.045537, -0.032455, -0.01751, 0.019036, -0.015792, -0.172619, 0.080536, -0.018662, -0.009188, 0.039454, 0.054932, 0.056767, 0.052125, -0.041284, -0.048446, 0.062134, 0.154962, -0.156979, 0.048535, 0.041009, 0.016762, -0.081681, 0.135207, -0.065863, 0.021584, 0.050021, 0.06769, 0.058232, -0.071721, -0.071396, 0.041865, 0.053908, 0.04165, -0.018353, -0.081143, -0.032694, -0.029832, 0.099494, -0.004314, -0.111688, 0.026359, -0.083669, -0.058752, -0.006004, -0.021274, -0.100331, -0.005472, -0.014552, 0.011527, 0.067162, -0.063541, 0.063021, 0.029321, 0.070071, 0.030513, -0.015459, 0.003068, 0.160784, 0.127348, 0.158241, 0.016774, 0.075694, 0.058997, -0.057684, 0.122313, -0.01412, -0.049697, 0.052671, -0.027155, -0.073091, 0.036493, 0.01063, 0.181307, -0.070699, -0.039342, 0.103904, -0.018665, -0.045765, 0.03952, -0.020329, -0.065097, -0.027663, 0.100862, 0.048185, 0.046015, 0.072806, 0.079304, 0.008195, 0.039421, 0.064799, -0.035663, -0.005557, 0.051536, -0.011514, 0.041927, -0.023194, 0.077164, 0.084698, 0.06296, -0.001404, -0.068287, 0.072451, -0.022469, 0.145755, 0.056334, 0.039537, -0.082826, 0.051373, 0.147238, 0.076207, 0.04772, 0.076118, 0.142898, 0.074754, 0.024906, 0.161015, -0.119524, -0.02276, 0.026187, 0.104069, 0.063053, 0.018364, 0.042368, 0.016721, -0.119255, 0.010411, 0.143692, -0.070153, 0.080399, 0.076093, 0.038429, 0.052212, 0.007249, 0.030419, -0.083457, -0.068321, -0.032194, 0.06792, -0.134965, 0.030806, 0.070955, 0.032427, 0.086536, 0.083873, -0.006338, -0.021128, 0.062475, -0.116322, 0.079288, -0.09077, 0.076338, -0.020697, 0.088363, -0.015736, 0.070308, -0.02361, 0.075354, 0.081773, 0.001312, 0.065438, 0.048798, -0.031347, 0.034932, -0.073548, -0.030192, 0.051127, 0.150276, -0.014767, -0.046512, -0.01418, 0.003776, 0.099481, 0.067568, -0.032832, 0.008216, 0.011179, 0.056033, 0.048487, 0.082376, -0.054207, -0.064526, 0.056366, -0.185501, 0.128669, -0.066412, -0.124149, 0.011548, -0.103255, -0.048841, 0.058135, -0.071518, -0.01569, 0.071696, -0.165976, 0.059386, -0.049742, -0.128201, -0.030855, -0.069339, 0.033434, 0.02976, -0.035675, 0.016864, -0.081438, 0.049135, -0.038684, -0.036507, -0.180086, 0.109071, -0.017486, 0.018073, -0.036486, -0.053346, 0.077584, 0.031079, -0.150665, -0.126299, -0.025187, -0.040717, -0.034478, 0.040338, 0.057994, -0.003979, -0.074496, -0.046858, 0.07988, -0.162056, 0.069807, -0.018086, 0.011099, -0.026082, 0.026417, 0.082976, -0.186843, 0.061791, 0.088103, 0.044933, 0.059129, 0.105777, 0.008604, -0.07691, -0.037409, 0.009281, 0.12063, 0.088299, 0.010571, 0.107309, 0.120474, -0.042816, -0.031361, -0.017234, 0.159635, -0.065347, 0.037208, -0.123486, 0.01002, -0.054564, 0.018277, -0.077316, 0.037544, -0.076244, 0.089797, 0.01663, -0.079799, 0.076651, -0.030409, -0.031308, 0.091093, 0.057363, -0.022518, -0.016963, 0.061494, -0.044951, 0.033853, 0.099748, -0.005313, 0.015074, 0.085257, 0.017606, 0.028599, 0.05914, 0.042092, 0.001419, 0.083506, 0.083513, -0.020556, 0.045335, -0.037115, 0.045866, -0.003146, 0.031132, -0.024504, -0.084794, -0.005558, -0.046761, -0.061717, 0.122225, -0.090734, 0.042963, -0.032383, -0.060843, -0.157244, -0.08065, 0.053568, -0.041272, 0.031281, -0.036174, -0.061683, -0.010799, -0.031766, -0.00097, 0.086812, 0.038918, 0.005977, 0.118256, 0.04245, -0.168976, 0.058741, -0.00662, -0.020905, 0.055174, -0.050026, -0.029766, 0.119032, -0.055519, -0.068218, -0.14498, -0.076457, 0.057764, 0.048976, 0.053381, -0.065203, -0.080879, 0.099869, 0.124418, -0.056265, -0.024224, 0.063068, -0.024828, -0.088293, 0.054776, 0.002538, -0.004914, -0.150804, 0.02537, 0.014924, 0.012328, -0.043586, -0.093558, -0.063763, 0.027812, 0.008762, -0.082389, -0.094258, 0.037161, -0.03299, -0.216953, 0.022865, -0.062411, 0.02521, 0.089906, 0.012541, -0.059329, -0.002437, -0.101251, 0.043603, 0.015028, 0.014343, -0.078974, -0.049011, -0.019533, -0.067251, -0.076759, 0.101651, -0.038997, -0.001097, 0.003964, 0.005377, -0.046345, -0.04637, 0.011905, 0.0037, -0.091403, 0.014405, 0.076396, 0.117987, 0.003107, -0.062784, 0.169997, 0.051397, 0.029959, -0.056908, 0.154716, -0.038685, 0.048793, -0.038538, 0.04798, -0.110812, -0.028345, 0.006592, 0.032584, -0.107087, -0.08543, -0.051407, -0.030251, -0.027932, 0.071256, 0.047034, 0.158281, -0.070615, 0.019322, -0.027315, -0.060061, -0.067898, 0.006504, -0.0085, 0.111302, -0.135528, -0.084912, 0.054455, 0.124885, -0.041415, -0.169417, -0.060604, 0.033375, -0.077751, 0.006532, 0.114916, 0.066063, 0.102824, -0.151258, -0.10337, 0.016518, 0.070109, 0.000374, 0.070402, 0.034121, 0.030614, -0.040351, -0.020422, -0.021636, -0.040526, -0.072744, 0.013484, 0.104083, 0.036053, -0.107059, 0.035307, 0.089143, -0.087294, 0.036168, 0.013616, -0.022265, 0.0333, 0.019218, -0.043007, -0.056932, -0.017802, 0.050219, 0.002666, 0.064842, 0.003678, 0.045516, 0.013243, 0.022602, -0.059042, -0.016254, -0.090782, -0.001546, 0.021497, 0.049041, -0.021564, 0.006688, 0.076418, 0.034433, -0.034072, -0.028665, -0.055265, 0.05681, 0.035183, 0.00207, -0.022857, 0.059471, 0.022995, -0.055951, 0.007628, 0.08198, 0.053978, -0.005362, -0.03531, 0.079711, 0.033568, -0.081646, 0.001762, -0.041523, 0.000152, -0.036264, -0.08545, 0.124014, 0.007764, -0.112623, -0.03202, 0.01087, 0.05379, -0.030296, -0.058337, 0.136043, 0.133542, 0.033748, -0.081228, 0.08092, 0.134588, -0.056613, -0.040156, 0.039664, -0.089991, 0.158853, -0.102806, -0.047198, -0.07416, 0.041994, -0.078576, 0.029591, 0.031793, 0.088869, -0.105582, -0.041949, -0.088695, -0.00692, -0.045509, -0.030451, 0.030354, 0.020795, -0.0574, 0.049353, -0.144993, 0.017557, 0.031964, -0.070674, -0.083257, 0.025338, 0.107072, -0.021726, -0.01245, 0.035183, 0.029802, -0.022028, -0.020771, -0.095515, -0.019387, 0.044781, -0.02807, -0.016275, 0.134258, 0.126558, -0.07343, -0.012098, -0.040433, 0.027177, -0.088392, -0.04396, -0.083262, 0.027988, 0.021858, -0.080543, 0.004079, 0.020805, -0.048751, 0.002724, 0.031648, 0.030457, 0.016069, -0.14136, -0.01416, -0.070113, 0.100501, -0.052625, 0.150438, 0.164628, 0.032594, 0.023695, -0.022005, 0.009552, 0.184618, 0.045774, 0.008835, 0.066701, -0.208717, 0.088374, -0.055845, 0.050696, -0.085202, 0.020604, -0.043899, -0.02427, -0.036698, 0.105532, 0.081115, -0.028965, 0.00097, 0.037608, -0.001743, 0.071385, -0.073492, -0.007791, -0.105537, -0.033975, -0.034907, 0.048359, 0.024296, -0.030469, -0.043986, -0.089073, -0.072204, -0.012584, -0.094376, 0.124538, -0.007853, 0.101578, -0.058394, 0.008245, -0.037883, 0.024553, 0.037714, -0.006913, 0.03335, 0.022364, 0.012663, -0.060931, -0.024792, -0.007978, -0.120946, 0.018013, -0.057236, -0.044748, 0.071785, 0.038829, 0.023713, -0.000115, -0.010373, -0.045384, -0.047699, 0.123794, -0.077415, -0.031515, 0.033903, 0.00513, -0.073812, -0.068981, -0.000631, 0.050053, -0.093788, -0.03186, 0.061185, -0.026142, 0.025655, -0.01356, -0.016787, 0.081511, 0.12499, -0.003648, -0.010346, 0.095551, 0.042604, -0.01382, 0.021366, 0.049817, 0.07376, 0.087528, 0.00184, 0.003096, 0.000956, -0.02471, -0.028256, 0.089883, -0.122814, -0.023879, -0.091846, 0.120019, 0.028899, 0.067945, -0.058144, 0.043325, -0.021015, 0.076212, 0.029734, -0.0474, 0.054813, 0.073625, -0.119229, -0.018923, -0.087965, 0.012304, -0.047807, -0.140043, -0.019545, 0.006087, -0.12744, 0.064576, -0.072343, 0.039229, -0.022441, 0.050958, 0.036689, -0.024383, 0.131262, 0.069806, -0.051493, 0.089424, 0.01869, -0.007084, -0.017557, 0.022705, 0.016492, -0.083482, -0.024913, 0.04, 0.037127, -0.060411, -0.041391, 0.108112, 0.083584, -0.029172, -0.000164, -0.031382, 0.05261, -0.082225, 0.149115, 0.07137, -0.047398, 0.006733, -0.005422, -0.043713, -0.050115, -0.05877, 0.094871, -0.129288, 0.071254, -0.095606, -0.027949, -0.100506, 0.000361, 0.053667, -0.053417, 0.013001, -0.048704, -0.005204, 0.080265, -0.067306, 0.016017, -0.02619, 0.000603, -0.095514, -0.054128, 0.090559, -0.051357, 0.011962, -0.086301, 0.030628, -0.079472, -0.138147, 0.048572, -0.039841, 0.017634, -0.037364, -0.1986, 0.088327, -0.047533, 0.00895, 0.046901, 0.078866, 0.007714, 0.032146, -0.076892, -0.088645, -0.043297, -0.053539, 0.031509, -0.125265, 0.047765, 0.073344, -0.012966, -0.012968, 0.072459, -0.00109, -0.122743, 0.014738, -0.001275, -0.013747, -0.002833, 0.043797, 0.020586, 0.128391, 0.159528, -0.003477, -0.063941, -0.035256, 0.111154, 0.054145, 0.156102, 0.033443, 0.08216, -0.008023, -0.038185, 0.079182, 0.031601, -0.084278, 0.048479, -0.029438, 0.080753, -0.044938, -0.043196, 0.076211, -0.02807, 0.065483, -0.034486, 0.053311, -0.073534, -0.065145, 0.015613, 0.038488, 0.167744, -0.164378, -0.068663, 0.010684, 0.094516, 0.036141, 0.147535, 0.063198, 0.000885, 0.179575, -0.070525, -0.022857, 0.010767, -0.089587, -0.087896, 0.02813, -0.089761, 0.112597, 0.042395, -0.054446, -0.034947, -0.0558, 0.051852, -0.013638, 0.019626, 0.05149, -0.05159, 0.005579, 0.017367, 0.109527, 0.018392, 0.069815, 0.026432, -0.126543, -0.033683, 0.165197, -0.04442, -0.10437, -0.004283, -0.132656, 0.01363, 0.048154, -0.025696, -0.03477, 0.064108, 0.072027, 0.042019, 0.111104, -0.050771, 0.076028, -0.045378, 0.135167, 0.000488, -0.082863, 0.006359, -0.031277, -0.105686, -0.127398, 0.063161, 0.086086, 0.037039, -0.059738, 0.078491, 0.037746, -0.016604, -0.120371, -0.016729, -0.195706, -0.075957, 0.143865, 0.09746, -0.120602, 0.055465, -0.045807, 0.057726, -0.059987, 0.003463, -0.080909, -0.026557, -0.039225, 0.002045, 0.110792, 0.016978, -0.01046, 0.073609, -0.0891, 0.010828, -0.083672, -0.081674, -0.001748, 0.023274, -0.009434, -0.117424, 0.033808, 0.010828, -0.044914, 0.022199, -0.014975, 0.115991, -0.065925, 0.061359, -0.02417, -0.03043, -0.108135, 0.117448, -0.016386, 0.028422, -0.013923, -0.082826, 0.095257, 0.058167, 0.090643, 0.019684, -0.061532, -0.043549, -0.011899, 0.039531, -0.080024, 0.131425, -0.05887, 0.095156, -0.13562, 0.026678, -0.143624, 0.033049, -0.035884, 0.040295, 0.021072, -0.04079, 0.134625, 0.137642, 0.020355, -0.035826, -0.092937, -0.088452, 0.032809, -0.0412, -0.11697, -0.033623, -0.048138, -0.023976, 0.060251, -0.087111, -0.096505, 0.072498, -0.092164, 0.046249, 0.044012, 0.026796, 0.005645, 0.036497, 0.001166, 0.125172, -0.008214, 0.042025, 0.022721, -0.0237, -0.030606, -0.002932, -0.059154, 0.064489, -0.020005, -0.012744, 0.04887, 0.077253, 0.06579, -0.065389, 0.104839, -0.025087, 0.049719, -0.000319, -0.002129, 0.119355, 0.092465, -0.02417, 0.107909, 0.160827, -0.104904, -0.122813, -0.002468, -0.00101, -0.066805, -0.060223, 0.012834, -0.051567, 0.002139, -0.068098, -0.026643, 0.061831, -0.157335, -0.01732, -0.001455, -0.074437, 0.024723, -0.075243, -0.077234, 0.100102, -0.073664, -0.013403, 0.080751, 0.101554, -0.065231, -0.007594, -0.056771, 0.060635, -0.010497, 0.09847, -0.041256, 0.034665, -0.040897, -0.041286, 0.050302, 0.098192, 0.034865, -0.111442, -0.080499, 0.039437, -0.004672, 0.086517, -0.093465, 0.153508, 0.035952, 0.055287, 0.06822, -0.079189, 0.146794, 0.020314, 0.085161, -0.026766, -0.051446, -0.015763, 0.020484, -0.102101, 0.021012, 0.081578, 0.089485, -0.07506, 0.027299, 0.022505, 0.121145, -0.01597, -0.06777, -0.002801, 0.0663, 0.002561, 0.169565, -0.055419, 0.020416, 0.009892, 0.13148, -0.040137, -0.011152, -0.003753, 0.046558, -0.142012, 0.011307, 0.00663, -0.075718, 0.051993, 0.001887, -0.090971, 0.025041, -0.01788, -0.010348, 0.053688, -0.085263, 0.006678, -0.084829, -0.03332, -0.090973, -0.025016, 0.028267, -0.08015, 0.053022, 0.03887, 0.008283, -0.135147, -0.04363, 0.083353, -0.061162, -0.073937, 0.030706, -0.022098, 0.04289, -0.098008, 0.006933, -0.051294, 0.015676, -0.043928, 0.163119, 0.056984, -0.058222, -0.070999, -0.033854, 0.082689, -0.052321, 0.027794, 0.063445, 0.059161, -0.083283, -0.081669, -0.069758, -0.066827, 0.118132, 0.018197, -0.050644, -0.04624, -0.027232, -0.042381, 0.07062, 0.065821, 0.113244, 0.118982, 0.113553, -0.011461, 0.033438, 0.001171, 0.112038, -0.041507, -0.062069, 0.071258, 0.06329, 0.00807, 0.011566, 0.010052, -0.026689, 0.057663, 0.042379, -0.045697, -0.019856, 0.06078, -0.021395, -0.064994, 0.035947, -0.135819, -0.091009, -0.049538, 0.011563, 0.002252, 0.100713, -0.090514, -0.015684, -0.046926, -0.039529, 0.039508, 0.02051, 0.076367, 0.103847, -0.022909, 0.020786, -0.031166, 0.059429, -0.026823, -0.086866, -0.004505, 0.060248, -0.110374, -0.098893, 0.024623, -0.027778, -0.043745, -0.009157, -0.099566, -0.060705, -0.041326, 0.150875, -0.011861, -0.015744, -0.142366, 0.031416, -0.019541, -0.119977, 0.03938, -0.07134, 0.067997, -0.07349, 0.084649, 0.003836, 0.002651, 0.04708, 0.040529, 0.041139, 0.087728, 0.010971, -0.014106, -0.038937, -0.063116, -0.003515, 0.00201, 0.045639, 0.03802, -0.024892, -0.036282, 0.035865, 0.012472, 0.050718, 0.023902, -0.005187, 0.150378, 0.067024, -0.127358, 0.055842, -0.171156, 0.069868, 0.07273, 0.124312, -0.093448, -0.005709, 0.051254, 0.088514, -0.079906, 0.00755, 0.03952, 0.078814, -0.04401, -0.123391, -0.071172, 0.027304, -0.234348, -0.03274, -0.020291, 0.119968, -0.036507, 0.020466, 0.147921, 0.164185, -0.06471, 0.036518, 0.080738, 0.168072, 0.009104, 0.064804, -0.005243, 0.057448, -0.058965, 0.023917, 0.030594, -0.03341, -0.061905, 0.161585, -0.036951, 0.001381, 0.014557, 0.047089, 0.084876, -0.080383, -0.076207, -0.007449, -0.011829, 0.029052, -0.04574, 0.01243, -0.068258, 0.023689, -0.008537, 0.002011, -0.029793, 0.046262, 0.015236, -0.012377, 0.110904, -0.055934, 0.060971, 0.009732, -0.110851, 0.076154, 0.055043, 0.006868, 0.00497, 0.02481, -0.055456, 0.09738, 0.019061, 0.000436, 0.161967, 0.024798, -0.038636, 0.000348, 0.01768, 0.075383, -0.085771, -0.011637, 0.099021, -0.109538, 0.114234, -0.000419, -0.036973, -0.009772, 0.012005, -0.142372, -0.018247, 0.068098, 0.064515, -0.040957, 0.026503, 0.119919, -0.046268, 0.049744, -0.068438, -0.038561, -0.141388, 0.170256, 0.000154, -0.02772, -0.093498, 0.033421, -0.090213, 0.063991, -0.06601, -0.164652, 0.110542, -0.131411, 0.074898, 0.093467, 0.116774, -0.045112, -0.147343, 0.036552, -0.052722, 0.071854, -0.157007, -0.050513, 0.125611, -0.04541, -0.017008, -0.074832, 0.026714, -0.056802, 0.14747, -0.104056, 0.009464, 0.051637, -0.02175, 0.012085, -0.053492, -0.026833, 0.096709, 0.009086, 0.036174, 0.07693, -0.048065, 0.052074, 0.107439, 0.04548, -0.099632, 0.037789, 0.072338, -0.079337, 0.077873, -0.074479, 0.06985, -0.104757, -0.127101, 0.041644, 0.122725, 0.013661, 0.066696, 0.0227, 0.021942, 0.011193, 0.083992, -0.0076, -0.11233, -0.080996, -0.00811, 0.068845, 0.136287, 0.075724, 0.04286, -0.111299, 0.081544, 0.137957, -0.015761, 0.137657, -0.035165, -0.016301, -0.085664, 0.00805, 0.063154, 0.083958, 0.067206, -0.010789, -0.056811, -0.001807, -0.097607, 0.126021, 0.043452, -0.081036, -0.020888, -0.049693, 0.030912, 0.010764, -0.06949, -0.019709, -0.117086, 0.029396, 0.047047, -0.01831, -0.044734, 0.04814, -0.059191, 0.133898, -0.061848, -0.07939, 0.116645, -0.046351, -0.055902, 0.03151, 0.084988, 0.116154, -0.141109, 0.075253, -0.049982, -0.060316, -0.00576, -0.082337, -0.021577, 0.019357, -0.102239, 0.111688, -0.086759, 0.060323, 0.04891, 0.12153, 0.143925, -0.076869, -0.127928, 0.024022, 0.017733, 0.024786, -0.08284, -0.065309, -0.000201, 0.022804, -0.103516, -0.143771, 0.010125, 0.098543, -0.085361, 0.00411, -0.071355, 0.074035, 0.03304, -0.066174, 0.023305, -0.013615, -0.085859, -0.046319, -0.055538, -0.057954, -0.046764, 0.053795, -0.110938, -0.037507, -0.01284, -0.076412, -0.012778, -0.010432, -0.030453, 0.03117, 0.00782, 0.078246, -0.06945, -0.035684, 0.061373, -0.075902, -0.058708, -0.018731, -0.106185, 0.001785, 0.022383, 0.207526, 0.107414, 0.015241, 0.041136, -0.107032, -0.034665, -0.095282, -0.030678, -0.036702, 0.002739, -0.063376, -0.019573, 0.028381, 0.147321, -0.011017, 0.090604, -0.014422, -0.134126, -0.012636, 0.102317, -0.043608, -0.036711, 0.031151, -0.127844, 0.032399, -0.044495, -0.026904, 0.211472, -0.1528, -0.087356, -0.174632, 0.124758, 0.007575, -0.049744, -0.156364, 0.090827, 0.123994, -0.090547, 0.00473, -0.11597, -0.094164, -0.01196, -0.006268, 0.135703, 0.006932, 0.074432, 0.146717, -0.014536, 0.021007, -0.097908, 0.018959, 0.055116, -0.021004, 0.084878, -0.041949, 0.059779, 0.100263, -0.180181, -0.062133, -0.054518, -0.11751, -0.047091, -0.04834, 0.126141, -0.03416, -0.055154, -0.101301, 0.016942, 0.025954, -0.104301, 0.063652, 0.106627, 0.036368, -0.028159, -0.132415, 0.027481, 0.089877, -0.001095, 0.009647, 0.093354, -0.146042, 0.035373, -0.081373, 0.096142, 0.164097, -0.055769, -0.053182, -0.006452, 0.022755, 0.143602, -0.000138, -0.070747, 0.107582, -0.010374, -0.016693, -0.06138, -0.047147, 0.127717, 0.096904, -0.015912, 0.080513, 0.108133, 0.085108, 0.01868, 0.037373, 0.160679, 0.00066, 0.042504, -0.0287, 0.025367, -0.012506, -0.174549, 0.004128, -0.085224, 0.034615, 0.127664, 0.059659, -0.173906, 0.05886, 0.05738, -0.066414, 0.05951, -0.038745, -0.105357, 0.101286, -0.037731, -0.14333, 0.066083, -0.063206, -0.090342, -0.041398, 0.038324, 0.038267, 0.087995, -0.113239, 7.6e-05, -0.058542, -0.109282, -0.066173, 0.020639, -0.017818, -0.008443, -0.045194, -0.039843, -0.002223, 0.015169, -0.015163, -0.080431, 0.06364, 0.097224, -0.003351, 0.007255, -0.083949, -0.015384, 0.061125, -0.023205, -0.019998, 0.093291, 0.049781, -0.083249, -0.058799, 0.065425, -0.052624, 0.05825, 0.060265, -0.085713, 0.088199, -0.049176, -0.022019, -0.112139, -0.074801, -0.097369, -0.016381, -0.022242, -0.091707, 0.011348, 0.026349, 0.057693, -0.083865, 0.03285, -0.083902, 0.084361, -0.143715, -0.006765, -0.009114, -0.067112, 0.194562, 0.004496, -0.042913, -0.061477, -0.059147, 0.042356, 0.061911, 0.059094, -0.132933, 0.064676, 0.026905, -0.013537, -0.022569, -0.01457, 0.05574, -0.001337, 0.05739, 0.045815, -0.019615, 0.129503, 0.1049, -0.014305, -0.062667, -0.09375, 0.021829, -0.138925, -0.023425, -0.043429, -0.03623, 0.012041, -0.04467, 0.059551, 0.106381, -0.135574, -0.11064, -0.103861, 0.099533, -0.030904, -0.043939, 0.034772, -0.037001, -0.021069, 0.108701, -0.033469, 0.016313, 0.161064, -0.056671, -0.066807, -0.109954, 0.045431, -0.001053, 0.065585, -0.087843, -0.023838, -0.01839, 0.147375, -0.033944, -0.073508, 0.121333, 0.059425, -0.162151, 0.022054, 0.013575, -0.058703, -0.056092, 0.209352, -0.106401, -0.086481, 0.015349, 0.020816, 0.080065, 0.0689, -0.014047, 0.08975, 0.132881, -0.052697, -0.05326, 0.049743, 0.000996, -0.102114, 0.055286, 0.094376, 0.098435, 0.041329, -0.118275, 0.136066, -0.06461, -0.090697, -0.040745, 0.04195, -0.056734, 0.026205, -0.124251, 0.038128, 0.021793, 0.053068, -0.102503, 0.0032, 0.073167, -0.081858, 0.0362, -0.023041, 0.00735, -0.132976, 0.041676, -0.028229, -0.019934, -0.019067, 0.011707, -0.004416, -0.068175, -0.009791, -0.012294, -0.032612, 0.022633, -0.063381, -0.013711, 0.054665, -0.051534, -0.090734, -0.033765, 0.071982, 0.063409, 0.073539, 0.021509, -0.076064, -0.159881, -0.090566, -0.050514, -0.041365, 0.007208, 0.010068, 0.063163, -0.079866, -0.027116, -0.057436, 0.173457, -0.214741, -0.054878, 0.002997, 0.063507, 0.044644, 0.07619, -0.000126, -0.100196, -0.003585, -0.060303, 0.144422, 0.02344, 0.135988, -0.082144, 0.188312, -0.059664, 0.068739, -0.004207, 0.041724, 0.119505, -0.013689, 0.139428, 0.047233, 0.090516, 0.034729, -0.005706, 0.050378, 0.113223, 0.06768, -0.058717, 0.003516, -0.011149, -0.07902, -0.017357, -0.111152, 0.076699, -0.107004, 0.064469, 0.028651, -0.035511, -0.048496, -0.178453, 0.007154, 0.126196, -0.109736, -0.051302, 0.033439, 0.090423, -0.047956, 0.035277, -0.118635, -0.078051, -0.103978, -0.068647, 0.013026, 0.019164, 0.081793, -0.063492, -0.085984, -0.000566, 0.000754, 0.002118, -0.070715, 0.001155, -0.189886, -0.134687, -0.077112, 0.068347, 0.085633, 0.065349, 0.00201, -0.040751, -0.007185, -0.018804, -0.087432, -0.048956, 0.081235, -0.043045, -0.013785, 0.039993, 0.05029, 0.113651, 0.09268, 0.019546, -0.116464, -0.068685, 0.016785, 0.077713, 0.021037, 0.001992, 0.080547, 0.053671, -0.054885, 0.068148, 0.115765, -0.028446, -0.043469, 0.009077, 0.087555, 0.023576, -0.142724, -0.089729, 0.041317, -0.008606, -0.02815, -0.061331, 0.005519, 0.033841, -0.00135, 0.059271, -0.066684, 0.013343, -0.059672, -0.026436, -0.125999, -0.065027, 0.128567, -0.076098, -0.053928, -0.032104, -0.039885, 0.080022, 0.090114, 0.026325, 0.046032, -0.116348, 0.0595, 0.076316, 0.089768, -0.018522, -0.140869, 0.017049, -0.041486, -0.014432, 0.066785, -0.041959, -0.111711, -0.058112, 0.012453, 0.065407, 0.115558, 0.031751, 0.122637, 0.037104, 0.017538, -0.019342, -0.021546, -0.026538, -0.020772, -0.128873, -0.147616, 0.101549, 0.01705, 0.002728, 0.064259, 0.112871, -0.044058, -0.065008, -0.078205, -0.040568, -0.018298, -0.020472, 0.107011, 0.055206, -0.036123, -0.065116, 0.072682, 0.038714, -0.132149, 0.038416, -0.031734, -0.049454, -0.235661, 0.022447, 0.060561, -0.016366, 0.070691, 0.064447, 0.008111, -0.159564, 0.110773, 0.104099, -0.040219, 0.032325, 0.111728, 0.111114, -0.019513, 0.059755, 0.070073, 0.023321, 0.044585, -0.03012, 0.161772, 0.049339, 0.034631, -0.080127, -0.084532, 0.025197, -0.051225, -0.103985, -0.015974, -0.153781, -0.047682, -0.05135, -0.004523, -0.043683, -0.205291, 0.097276, 0.038025, 0.069922, 0.054333, 0.016839, 0.101878, 0.115204, -0.000879, 0.048355, -0.068982, 0.042686, -0.109858, 0.031767, 0.012488, 0.061297, -0.04114, -0.11007, -0.055259, -0.029416, -0.155361, 0.013032, 0.125678, -0.034839, 0.090608, -0.096529, 0.08764, -0.046213, -0.002191, 0.050973, 0.068424, -0.064601, 0.001799, -0.027896, 0.079864, -0.048823, -0.004366, -0.057519, -0.001081, -0.059124, 0.166301, 0.032415, -0.070604, -0.0873, 0.021645, -0.09844, 0.033871, -0.006441, 0.126888, 0.064492, -0.140841, 0.159324, 0.005763, -0.122593, 0.01004, 0.039662, -0.038345, 0.002153, 0.002593, -0.010813, -0.003376, 0.038429, -0.042822, -0.143943, 0.030456, 0.117489, 0.134364, -0.006947, 0.059042, 0.018097, 0.097451, -0.083645, -0.044852, -0.058886, 0.137382, -0.167227, -0.16032, -0.077704, -0.17379, -0.083932, -0.046626, -0.099846, 0.101342, -0.016069, 0.099306, -0.179537, -0.085524, 0.041132, 0.063118, 0.080436, 0.077193, 0.178994, 0.003044, 0.0506, -0.118204, -0.039498, -0.040467, -0.076463, 0.119063, 0.121891, 0.000807, 0.0319, -0.026055, -0.124599, -0.061488, 0.068208, 0.027924, 0.037102, 0.032673, -0.100866, 0.041563, -0.084057, 0.004843, 0.077951, -0.070045, 0.047826, 0.060228, 0.028263, -0.064056, -0.110288, -0.152344, -0.133453, 0.016288, 0.095493, 0.057189, 0.036217, -0.020141, -0.009406, 0.211587, -0.065207, -0.027708, -0.0466, -0.025421, 0.003368, -0.013336, 0.101056, 0.116597, -0.081114, -0.149303, -0.041587, 0.065165, -0.133193, -0.05881, -0.109633, -0.114263, -0.090225, -0.096825, -0.064661, -0.107488, 0.056284, 0.045397, 0.003247, -0.086268, 0.011284, 0.136344, -0.009079, 0.115586, -0.089321, 0.033638, -0.027598, -0.008702, 0.12958, -0.029765, 0.064378, 0.102575, -0.064653, -0.07475, -0.094242, 0.120668, -0.027274, 0.003485, -0.035977, 0.035119, -0.069058, 0.051969, -0.083028, -0.067518, -0.054846, -0.030634, -0.04767, 0.015332, 0.059303, 0.125812, 0.036411, -0.134517, -0.068033, 0.081493, -0.055114, 0.028641, 0.026496, 0.128628, 0.076964, 0.034423, -0.051928, -0.044719, 0.028537, -0.039542, -0.005491, -0.046278, -0.13222, 0.032997, 0.048548, 0.010424, 0.001675, -0.065413, 0.054161, -0.07694, -0.174735, 0.093025, -0.037938, 0.060087, -0.028246, -0.019568, -0.02421, 0.046393, 0.131959, 0.068895, 0.041609, 0.100792, -0.024749, 0.089394, 0.106299, -0.114663, 0.034286, -0.126552, -0.061963, 0.075768, 0.084631, -0.028909, 0.088868, -0.037606, 0.057075, -0.037437, -0.019431, 0.065449, -0.08506, 0.072518, -0.045078, 0.024988, 0.191096, -0.032304, -0.058591, -0.07875, -0.08165, 0.06577, 0.065807, 0.042938, 0.081662, -4.7e-05, -0.015365, -0.010108, -0.020373, 0.135065, 0.084192, 0.048307, 0.017265, -0.035549, -0.003356, -0.073267, -0.112578, -0.068157}; //ip_weight
float ip_bias2[10] = {-0.003636, 0.015623, -0.01442, -0.016374, -0.011747, -0.005545, -0.042688, -0.015682, 0.08586, 0.008604}; //ip_bias

void InnerProduct2(Layer current, Layer next, float *layer0, float *layer1){
	#pragma HLS DATAFLOW

	int total_input = 500;

	for(int i=0; i<10; i++){
		#pragma HLS unroll
		float r = 0.0;
		for(int j=0; j<total_input; j++){
			#pragma HLS loop_flatten
			r+=((*(layer0+j)) * (ip_weight2[i*total_input + j]));
		}
		*(layer1+i) = r + ip_bias2[i];
	}
}
